30 128
13 -0.17800005 -0.070900284 0.17297912 -0.22488676 0.05435721 0.22880554 -0.048291333 -0.23393005 0.2759733 0.17332295 -0.1508916 0.107422374 -0.05614816 0.35188773 0.33536255 0.21557772 -0.5498958 0.08321065 -0.6779846 -0.7101526 0.52483493 0.24621476 0.007977877 -0.10792197 -0.35099334 0.06438964 0.41887635 0.2767086 -0.26630473 -0.5006591 -0.1935495 0.3777829 0.26967677 -0.20125142 0.41817504 0.32455572 0.094764106 0.12183415 0.01527429 0.30931088 -0.20386405 0.34557298 0.27566645 0.006231374 0.26910254 0.33900708 0.27147824 0.22257948 -0.18095966 0.14937945 -0.09124463 0.08232005 0.2943233 0.171885 -0.19989343 -0.4345215 -0.54462594 -0.31682825 0.16630736 -0.21383087 0.5169006 0.06742802 -0.067973234 -0.7396032 0.178928 0.3506172 0.032816585 -0.3964316 0.547769 0.01498373 0.15654144 -0.30961075 0.18540792 -0.28076327 0.23905692 0.0385213 0.33730108 -0.12679087 -0.55204254 -0.38409072 0.16535215 0.2145236 -0.010438733 -0.12727514 -0.5684047 0.087930776 0.022062339 -0.23608564 -0.121076934 0.4020323 0.07483194 0.019479731 0.040768012 -0.09428033 -0.15555836 0.052403696 0.42704988 -0.029326776 -0.25236398 0.45167872 0.6657747 -0.1605787 -0.12320164 0.15846862 -0.36756676 -0.8079444 0.09053434 -0.2614057 -0.1108982 -0.4362189 -0.13898939 -0.107604206 -0.35880098 0.016178261 0.19622654 0.10379842 -0.119944364 0.53446394 -0.15164617 -0.08854756 0.2881875 0.0005037663 0.53662163 0.42445877 -0.037899505 -0.18464439 -0.21900637 0.26321363
16 -0.28202838 -0.05158008 0.15556373 -0.20906556 0.06572668 0.16640197 -0.06989599 -0.19782108 0.27553904 0.21391 -0.15893541 0.16959512 -0.023756044 0.4329301 0.4150013 0.1319234 -0.54268616 0.04387911 -0.7329428 -0.7156066 0.45948988 0.28127947 0.11048738 -0.23606494 -0.21286052 0.028403115 0.3857738 0.27121177 -0.27373368 -0.5026143 -0.1154662 0.40932158 0.2747189 -0.22750168 0.51723033 0.43139473 0.061880033 0.07863534 -0.017631209 0.37776017 -0.22463015 0.48381993 0.28075176 -0.079949506 0.18572469 0.20127283 0.20108356 0.35257506 -0.20941085 0.20984109 -0.0018502462 0.035307728 0.3209835 0.23237513 -0.17110462 -0.4963342 -0.5134799 -0.22603087 0.14473806 -0.2789025 0.5485666 -0.015057551 0.011066674 -0.873229 0.17075263 0.48935038 0.032476243 -0.33185986 0.6102233 0.09345213 0.15633611 -0.3464096 0.19358818 -0.35819247 0.30214027 0.106373645 0.3930207 -0.17100878 -0.49317786 -0.38459367 0.23588742 0.2899859 0.052049916 -0.12796697 -0.5361664 0.10277836 0.05746999 -0.21455364 0.033035427 0.4352102 -0.08401258 -0.010103906 -0.034960542 -0.11608214 -0.21126458 0.07155143 0.4496831 0.11176125 -0.14297253 0.44736144 0.65248936 -0.05014576 -0.03980354 0.1783632 -0.34526378 -0.7784482 0.092730284 -0.24079502 -0.06837855 -0.45690975 -0.258587 -0.032361295 -0.49418154 0.0099301925 0.13417172 0.112064555 -0.17408869 0.49610856 -0.14376639 -0.11672648 0.3182015 -0.055102393 0.48998344 0.24983446 -0.05568982 -0.1840196 -0.16056947 0.3469938
24 -0.10947972 -0.20259559 0.19973145 -0.2580236 -0.0011114657 0.057404283 0.16133904 -0.20458224 -0.09118476 -0.03874153 -0.0564339 0.017277822 0.036883473 -0.17221168 0.013559697 -0.26411524 -0.11379272 -0.3064574 0.04508213 -0.10381641 0.2651465 0.1121736 0.06123117 0.29611158 -0.16624835 0.0664751 -0.10536229 -0.046958774 0.017490285 0.10830591 -0.14060825 0.094327174 -0.086883165 -0.043770634 -0.12207623 -0.35736936 0.19019423 -0.0024518766 0.051978797 -0.25961727 -0.23119168 -0.16822553 -0.07596139 0.2728541 0.0709097 0.37492213 -0.16731508 0.028144 -0.10369519 0.05309908 -0.13684751 0.13504568 -0.10770574 0.12061669 -0.15014665 -0.13258974 -0.13793574 -0.07107348 -0.14603484 0.08493131 0.13665886 -0.07147589 0.06266521 0.08132267 -0.031538583 -0.07282061 0.0075206663 0.10029063 -0.060141426 -0.10451619 -0.07921475 0.03675904 -0.06049961 -0.11629802 0.12990636 -0.172144 0.039054073 -0.04236998 -0.16095696 -0.15756655 -0.11349606 -0.123198695 0.09676456 -0.21188287 -0.26643878 0.08004255 -0.036202297 -0.13220859 -0.0044793165 0.019052012 0.20619598 0.05012867 0.122220315 -0.17424935 -0.1971792 0.25460777 -0.10718994 0.092804074 0.22658964 -0.03556332 -0.23794472 0.118761435 -0.18672863 0.077658966 0.12019019 0.123924494 0.30485463 0.25179854 0.049476217 -0.1424985 0.09558615 -0.02463123 -0.05590199 -0.0104242 -0.2897995 -0.024265796 -0.08073948 0.19890884 -0.10281784 0.026343586 -0.02215538 -0.17352787 0.012858595 -0.29401222 -0.13684714 0.22172534 0.099082455 0.21652296
8 -0.122303784 -0.23974419 0.22952855 -0.2848015 -0.0061925696 0.06267361 0.15887855 -0.21649446 -0.14372906 -0.023913514 -0.02889927 0.020158624 0.031699363 -0.19637345 0.0125258565 -0.29637522 -0.071923524 -0.35236552 0.0989862 -0.10666615 0.2626127 0.12450227 0.038520046 0.30727476 -0.19949283 0.068102464 -0.13668117 -0.018006794 0.04242006 0.14470604 -0.13349147 0.10422381 -0.08632447 -0.0003933241 -0.12086193 -0.37367246 0.15684345 0.019441197 0.096197456 -0.23829165 -0.22056115 -0.1793919 -0.07389716 0.27978328 0.04533809 0.36019897 -0.20501146 0.017352762 -0.108922526 0.07006121 -0.14476909 0.1215877 -0.111422904 0.118150726 -0.1584307 -0.13720964 -0.14780432 -0.033649288 -0.13222644 0.08573185 0.11367051 -0.06832344 0.0541079 0.07271908 -0.036820818 -0.05755823 -0.0020438996 0.086724624 -0.049425572 -0.09542226 -0.09775235 0.055304725 -0.07058308 -0.09142638 0.09962566 -0.14267656 0.021467233 -0.027972143 -0.1274726 -0.13794738 -0.11150335 -0.118117735 0.09758586 -0.13300864 -0.24048845 0.06389413 -0.018080272 -0.13444482 0.03022902 0.0030000305 0.1691571 0.041840635 0.0700638 -0.18247014 -0.15838611 0.21069875 -0.11047963 0.062165715 0.19748358 -0.07826151 -0.20496589 0.09440958 -0.117714226 0.053392347 0.12568083 0.12460379 0.2661269 0.20482425 0.043321695 -0.108345434 0.085601814 -0.013710924 -0.041666824 0.01622531 -0.24463163 -0.022427721 -0.09088945 0.11418711 -0.098344296 0.003886803 -0.031425342 -0.13241975 0.011675568 -0.20265588 -0.12883495 0.16389272 0.12553221 0.17324857
29 -0.16140558 -0.2547977 0.19973068 -0.25552043 0.022767084 0.024520837 0.12077361 -0.17414056 -0.09609839 -0.037593793 -0.02619075 0.050024446 0.042316653 -0.15804204 0.03376631 -0.30988163 -0.1008659 -0.33029568 0.08100424 -0.09972374 0.28762454 0.118057415 0.0902716 0.29229924 -0.1724283 0.056760088 -0.1494659 -0.042576272 0.03661349 0.14465247 -0.10295664 0.094619334 -0.07317401 -0.018561339 -0.10786119 -0.34442306 0.18072417 0.0216736 0.07530054 -0.2089324 -0.19347565 -0.15671904 -0.0877599 0.25415874 0.02312352 0.37470162 -0.21030925 0.045588523 -0.109484665 0.04979277 -0.14357063 0.111526854 -0.11281273 0.11955319 -0.16378558 -0.15321943 -0.11016181 -0.02059541 -0.17019498 0.0971976 0.123242326 -0.08777523 0.09436508 0.10208035 -0.07550959 -0.040815666 -0.020827407 0.10040351 -0.02122948 -0.063973725 -0.11814851 0.06876387 -0.08832883 -0.122723386 0.1380029 -0.12140779 0.036806762 -0.037151646 -0.117455006 -0.15518896 -0.1317367 -0.08185221 0.1085418 -0.19304004 -0.26730818 0.06843731 0.013084526 -0.14299394 0.033072215 0.0036074277 0.17258221 0.007238894 0.120012864 -0.18430799 -0.18632136 0.2206415 -0.11538313 0.110965 0.24965124 -0.029618906 -0.25278044 0.14547487 -0.17123094 0.083467364 0.14504671 0.15385151 0.30229223 0.21722065 0.0604294 -0.1426939 0.06460049 -0.008414812 -0.06433341 -0.024250109 -0.31198972 -0.05919156 -0.1012722 0.14067882 -0.0974906 -0.011953206 -0.019569002 -0.19915749 0.023996487 -0.30789983 -0.15665498 0.1675703 0.088712916 0.19004938
6 -0.15111323 -0.229512 0.22380942 -0.2762675 0.014280602 0.059853222 0.12513381 -0.17986713 -0.13482158 -0.0252718 -0.033135206 0.009978748 0.05375724 -0.18958127 0.04600108 -0.31345776 -0.055495616 -0.32955545 0.09077328 -0.10520325 0.26199022 0.12570493 0.06389892 0.28329593 -0.16501522 0.047454294 -0.15791199 -0.018882953 0.034102563 0.15177666 -0.090837926 0.099139504 -0.08121488 -0.009348555 -0.09673899 -0.3583839 0.15590549 0.028690223 0.08775752 -0.20995574 -0.21177241 -0.14251569 -0.07462292 0.25535935 -0.0025050126 0.33481324 -0.2299169 0.032655522 -0.09651094 0.07092219 -0.11121588 0.11650296 -0.10443133 0.14873597 -0.1535963 -0.15353203 -0.124330916 -0.0388211 -0.16241543 0.08887283 0.105299905 -0.068141185 0.088317335 0.07833554 -0.023087448 -0.027940886 -0.02352964 0.084759 -0.024489267 -0.09395153 -0.10495374 0.05973959 -0.08125113 -0.11166101 0.11515926 -0.13648999 0.014078674 -0.031664804 -0.118804164 -0.13001432 -0.10845891 -0.08638696 0.10139862 -0.13982789 -0.22632365 0.042605992 -0.0035628625 -0.13237773 0.04834027 0.03759754 0.16247712 0.015287858 0.073401324 -0.19714601 -0.17653187 0.19364989 -0.112604216 0.0921241 0.20859146 -0.05493234 -0.19256258 0.11469462 -0.11375617 0.07430132 0.12835297 0.14141175 0.27232462 0.20441616 0.048018478 -0.14047733 0.07992515 0.001823936 -0.08169405 0.003609354 -0.2668603 -0.03138207 -0.108918555 0.09765086 -0.08896394 0.016581299 -0.009590815 -0.16238838 0.035437234 -0.2496746 -0.14665851 0.15323964 0.15142332 0.17692895
26 -0.1285496 -0.21557331 0.19300254 -0.24887605 0.03636338 0.058392398 0.12533274 -0.16929069 -0.09369728 -0.059378684 -0.03316627 0.018428683 0.037263036 -0.16686776 0.010708118 -0.2732115 -0.052680675 -0.28748247 0.07741845 -0.062409528 0.25726312 0.11120008 0.07677575 0.3024409 -0.13648582 0.04616534 -0.1541946 -0.046671115 0.016008712 0.1357462 -0.10035293 0.066408664 -0.0678797 -0.014131191 -0.1151234 -0.3418248 0.14074332 0.0024769858 0.06967703 -0.20177743 -0.21620703 -0.15312536 -0.07372262 0.24834594 0.03858221 0.35718176 -0.19596834 0.022526558 -0.07705368 0.03951276 -0.10179042 0.11307003 -0.1108308 0.12999533 -0.14954814 -0.13323611 -0.10919551 -0.052326694 -0.17090671 0.10978398 0.10631183 -0.06781752 0.09317684 0.10157105 -0.04709736 -0.018411875 0.0076019787 0.07507054 -0.035485838 -0.07710622 -0.076862074 0.054017175 -0.066056244 -0.106481366 0.11589591 -0.13809969 0.03055973 -0.032199383 -0.13346016 -0.15088427 -0.13242032 -0.0644142 0.09307308 -0.1633066 -0.24315675 0.04504343 -0.028379904 -0.13605666 0.019636089 0.012937329 0.1686281 0.024942322 0.1459277 -0.15476115 -0.19868 0.22938997 -0.116214946 0.114922196 0.23757802 -0.008835689 -0.22794801 0.118352726 -0.1638779 0.08488677 0.11944337 0.14209567 0.28296876 0.22662798 0.027355373 -0.13666478 0.06336188 -0.040277824 -0.05807172 -0.038592618 -0.251516 -0.014845323 -0.06422734 0.14213696 -0.09848433 0.03418118 -0.009016441 -0.2036057 0.019500405 -0.28350747 -0.14037465 0.1568062 0.084203206 0.16696073
5 -0.12609585 -0.2286569 0.22242475 -0.29340085 -0.016930519 0.041982982 0.1868349 -0.22777292 -0.1267623 -0.009310237 -0.04709011 0.012854637 0.060836308 -0.19645707 0.035601437 -0.30391738 -0.121820204 -0.37309915 0.05301985 -0.13992542 0.27225718 0.13907823 0.03689006 0.2836593 -0.18877785 0.055656828 -0.11630546 -0.025512982 0.047143843 0.13749132 -0.15395795 0.12673122 -0.113266304 -0.049744226 -0.09331021 -0.36267334 0.20238411 0.021149227 0.055280138 -0.26491496 -0.20947693 -0.16214707 -0.0711947 0.27298036 0.03513476 0.32742664 -0.19205765 0.040194593 -0.14075139 0.089291506 -0.14698881 0.1473748 -0.08942321 0.14206855 -0.16112657 -0.17771256 -0.15490119 -0.055574734 -0.09352445 0.035916664 0.15494137 -0.06513517 0.04223239 0.019659031 -0.008755078 -0.06433408 -0.0120920325 0.11357931 -0.027590843 -0.1025058 -0.106915146 0.038367007 -0.06128373 -0.13940784 0.11579183 -0.18272999 0.025128001 -0.045729663 -0.1467306 -0.1431813 -0.076323435 -0.15002331 0.09199897 -0.17279129 -0.22971557 0.07136421 -0.0050082104 -0.11326593 0.017103711 0.053308904 0.1793131 0.035675578 0.030172443 -0.21298796 -0.17256667 0.20455438 -0.086417645 0.04307184 0.18811256 -0.0603411 -0.19799346 0.10244976 -0.11677035 0.047117382 0.10471536 0.08815198 0.27890894 0.2148909 0.0639112 -0.13241367 0.092985034 0.005316211 -0.06452351 0.040341683 -0.29969513 -0.03439049 -0.10708733 0.16723987 -0.079485826 -0.011121662 -0.015299884 -0.09598458 0.023778465 -0.24480322 -0.15818787 0.23331147 0.15461917 0.24769533
2 -0.1516029 -0.26223257 0.19558217 -0.2747879 0.005203819 0.01531008 0.1533727 -0.18815717 -0.11221103 -0.03978188 -0.027829617 0.046930514 0.059185922 -0.1870234 0.020828495 -0.33234605 -0.11403804 -0.3521631 0.07647129 -0.10780572 0.29654694 0.12604329 0.085574314 0.30830404 -0.18115668 0.044696335 -0.14714281 -0.054489862 0.03732808 0.15584879 -0.115418054 0.10083359 -0.09949216 -0.028338125 -0.120550275 -0.37363967 0.20535745 0.01501218 0.060271 -0.25322768 -0.21075557 -0.16983512 -0.09230912 0.27191776 0.020815806 0.38519305 -0.21756305 0.05132558 -0.12023083 0.057019975 -0.1505889 0.13243777 -0.10549816 0.120368615 -0.17650981 -0.17499663 -0.11312238 -0.026141366 -0.16751371 0.08887651 0.1344173 -0.08578473 0.08733182 0.09167193 -0.068282604 -0.04654224 -0.014803125 0.110663705 -0.03498138 -0.07016021 -0.123613454 0.06441883 -0.074259266 -0.1341894 0.13472162 -0.1484176 0.03454589 -0.04908238 -0.12388803 -0.1616034 -0.12772405 -0.11310807 0.10976322 -0.19837856 -0.2658346 0.080605365 -0.002174745 -0.1386986 0.028778482 0.00793063 0.18720675 0.023962993 0.10434151 -0.20108247 -0.20231359 0.22742784 -0.11234478 0.085672 0.24428762 -0.022256829 -0.25727865 0.13068016 -0.1518465 0.065743625 0.13290775 0.13632406 0.31124833 0.2326974 0.066917926 -0.12734361 0.059874963 -0.0076857307 -0.056339223 -0.010681066 -0.3284683 -0.06078609 -0.09425318 0.1561662 -0.0865408 -0.021046245 -0.022682365 -0.16226338 0.012443582 -0.32139194 -0.15803687 0.20835255 0.103107855 0.21594846
1 -0.15850152 -0.24748366 0.26784423 -0.29876918 0.012136794 0.06620616 0.16148275 -0.22385015 -0.16534933 -0.018086895 -0.032407686 -0.00977881 0.02804422 -0.2019614 0.014813894 -0.3064226 -0.070680335 -0.35990143 0.07886973 -0.16539894 0.25259468 0.15187123 -0.003976171 0.3023895 -0.21460828 0.072080605 -0.11182472 0.021960814 0.053118184 0.1288336 -0.17079325 0.1275877 -0.07276208 0.008499406 -0.08947755 -0.32082355 0.115286164 0.004140604 0.11792362 -0.2255471 -0.20252857 -0.15622643 -0.06059213 0.25296047 0.071791396 0.29532823 -0.20514846 0.02569871 -0.11886668 0.09087613 -0.14006881 0.1126727 -0.11496079 0.14753714 -0.17079607 -0.14685257 -0.17967914 -0.025458002 -0.07724752 0.07442874 0.12137519 -0.03666161 0.018961586 -0.02223942 -0.034637567 -0.048666134 0.01364276 0.09562449 -0.028951248 -0.059421353 -0.08886566 0.033452313 -0.06566168 -0.06878909 0.037219986 -0.13272536 0.038767293 -0.039279047 -0.104443714 -0.14418805 -0.06719788 -0.108533055 0.09162529 -0.11341375 -0.19794959 0.0455229 -0.043482404 -0.12550937 0.03203206 0.02265424 0.13794883 0.05171783 0.023877488 -0.19459102 -0.1378201 0.20410433 -0.10453791 0.08007412 0.16986671 -0.08099681 -0.17648038 0.09381749 -0.087117955 0.030900434 0.124068245 0.10527471 0.23704919 0.18615144 0.040771957 -0.09135739 0.0888985 -0.024033526 -0.052887034 0.039140612 -0.22035994 -0.019750029 -0.07415918 0.10287864 -0.07783156 0.026902096 -0.01598043 -0.077243514 0.0037124131 -0.11299194 -0.103726104 0.16319504 0.14254601 0.18008237
23 -0.1394542 -0.1927389 0.23096679 -0.27943954 -0.0043178345 0.067622446 0.16222821 -0.21865636 -0.13958558 0.0009905318 -0.056477558 -0.017587878 0.042707987 -0.18979073 0.037692867 -0.27795517 -0.093069196 -0.3299814 0.049380887 -0.15974414 0.23593172 0.14425984 0.0053429105 0.26369032 -0.18510735 0.06523347 -0.09563177 0.0102086635 0.046062995 0.113672584 -0.15205137 0.13135777 -0.09530543 -0.02139431 -0.0849294 -0.3538758 0.16887595 0.0055586537 0.0933299 -0.25221652 -0.21602274 -0.15097012 -0.08036762 0.26737323 0.050653007 0.30623206 -0.21617861 0.040840715 -0.1344537 0.09275024 -0.13620116 0.13211723 -0.10329794 0.16499133 -0.16875553 -0.15886201 -0.17657498 -0.056478806 -0.10187055 0.0630336 0.13276507 -0.052853 0.031700898 0.0009839962 -0.0027228885 -0.0606438 0.0026625248 0.110470414 -0.015826663 -0.08207285 -0.10158297 0.033918213 -0.07522454 -0.11176255 0.07804083 -0.16043536 0.032245643 -0.050284997 -0.12784703 -0.14097261 -0.06060857 -0.12812537 0.09556628 -0.16756809 -0.2208176 0.060495924 -0.03565217 -0.11900231 0.024002425 0.05875768 0.17567825 0.037161835 0.019369112 -0.21877718 -0.16306709 0.2090633 -0.09554751 0.0955053 0.17967668 -0.06916229 -0.1865338 0.103699245 -0.12204533 0.052827545 0.1299043 0.09741173 0.2621835 0.19820058 0.051112518 -0.13586952 0.103204705 -0.0048204227 -0.08433522 0.03796077 -0.26522812 -0.027718376 -0.1102669 0.1452369 -0.07960534 0.03597647 -0.008086779 -0.096326314 0.027265199 -0.16743658 -0.12085441 0.1955452 0.16269034 0.2222594
4 -0.15901795 -0.26508996 0.22768472 -0.30237198 0.03503673 0.050406642 0.14054085 -0.20376556 -0.1336461 -0.058855843 -0.03206505 0.01731685 0.045701515 -0.19556658 0.024815563 -0.35025966 -0.068331584 -0.35055137 0.095786214 -0.09324368 0.29539543 0.1318655 0.063709706 0.33951938 -0.18827932 0.04795924 -0.16318458 -0.037618533 0.03138273 0.14794828 -0.120120525 0.09180622 -0.06908991 -0.006342873 -0.10809794 -0.358435 0.15113378 0.019227892 0.092996284 -0.22016308 -0.21260968 -0.15040094 -0.077697225 0.2542458 0.0359648 0.36924458 -0.22416782 0.03553984 -0.0985376 0.05508839 -0.12537089 0.118230544 -0.10354051 0.13649137 -0.16963048 -0.15610376 -0.121476926 -0.037855152 -0.17114767 0.10523169 0.11592277 -0.07726496 0.09369683 0.07387332 -0.053930905 -0.029592978 -0.01364279 0.08114303 -0.037856933 -0.08034883 -0.10427088 0.05312284 -0.06716979 -0.109301284 0.105198205 -0.14105521 0.03182503 -0.0392759 -0.12505145 -0.15275669 -0.12626617 -0.08996552 0.10423026 -0.15701339 -0.23736566 0.05065144 -0.0126124695 -0.13888383 0.038493253 0.013662907 0.16141823 0.023063175 0.10340153 -0.18943594 -0.18563902 0.22077483 -0.13475154 0.104233935 0.22868197 -0.03519524 -0.22024728 0.13036698 -0.12424146 0.06690415 0.12428832 0.14806443 0.28997228 0.22290504 0.042636614 -0.12981881 0.062573254 -0.023604525 -0.07360735 -0.02194954 -0.2712037 -0.038970713 -0.075793825 0.11291941 -0.08238232 0.013199969 -0.014247132 -0.16664812 0.00754118 -0.27382505 -0.13657385 0.16785239 0.106313646 0.17763746
7 -0.15591547 -0.24372879 0.27736586 -0.2803503 -0.0021864926 0.06843242 0.1476595 -0.19416222 -0.1258251 -0.004665659 -0.038530737 0.013200561 0.039270047 -0.20223078 0.028851017 -0.2858984 -0.072809875 -0.35329974 0.08701985 -0.13097306 0.2520106 0.124327265 0.045676116 0.28782633 -0.1611559 0.10021626 -0.1424131 0.010243242 0.05509989 0.13931888 -0.15476969 0.12341922 -0.09046541 -0.022914601 -0.09479276 -0.3482816 0.15797319 0.007176042 0.09905114 -0.20860627 -0.2204789 -0.16482642 -0.053359892 0.28976572 0.054358665 0.31273475 -0.18805887 0.01810977 -0.12170096 0.08651978 -0.124984376 0.1130042 -0.11920015 0.16477518 -0.15333103 -0.123789445 -0.17542893 -0.052737962 -0.09920395 0.066446796 0.132673 -0.062478777 0.03868403 0.046594404 -0.0022831808 -0.058339346 0.0054817456 0.11621463 -0.017968081 -0.100794144 -0.08023299 0.049010318 -0.08399484 -0.10662765 0.10435101 -0.14452845 0.040939696 -0.02628051 -0.13181703 -0.12643836 -0.0665727 -0.104179926 0.08512713 -0.1478552 -0.24335216 0.055057112 -0.015266316 -0.11698264 0.016703313 0.052515965 0.16325806 0.030814033 0.0529377 -0.19040452 -0.16053288 0.21336316 -0.09006876 0.07569357 0.18697545 -0.09546641 -0.2045426 0.119424246 -0.14562793 0.07116712 0.13747637 0.12934488 0.25037688 0.19171 0.055942893 -0.14372414 0.1249485 -0.0038659347 -0.06379687 0.035675153 -0.25275257 -0.013026002 -0.119172804 0.13866897 -0.10532732 0.030227259 -0.02374366 -0.1430807 0.030607712 -0.18337032 -0.13814932 0.15572858 0.15982702 0.2030654
22 -0.14223021 -0.23887572 0.24025983 -0.29563266 -0.028603978 0.052839696 0.1718122 -0.22897841 -0.12571205 -0.00077875314 -0.04935694 0.028153313 0.05238986 -0.17495203 0.039803345 -0.2914489 -0.12457758 -0.3709899 0.06518866 -0.1371758 0.27549997 0.12247362 0.06394041 0.28039646 -0.19927481 0.08324111 -0.11036303 -0.021512605 0.053030442 0.122084744 -0.15073523 0.13332617 -0.09290012 -0.040164277 -0.095985256 -0.38937372 0.2060894 0.029802678 0.07196686 -0.2598991 -0.24013188 -0.18771106 -0.07861251 0.299597 0.03806497 0.3702659 -0.19886637 0.037263125 -0.13802853 0.083795 -0.17201255 0.14386953 -0.1046331 0.12323654 -0.15563948 -0.16957651 -0.1785652 -0.061547402 -0.13407125 0.05849349 0.16441119 -0.07971845 0.054315217 0.062214278 -0.0056844866 -0.07306201 -0.017400028 0.110755526 -0.033386923 -0.10873574 -0.10415586 0.042280205 -0.06459253 -0.14408122 0.1421122 -0.1695666 0.034801997 -0.034754656 -0.15821819 -0.144456 -0.09330125 -0.14935432 0.10837114 -0.19730398 -0.2703324 0.08384512 0.0019103215 -0.13341777 0.016838057 0.04974261 0.19367176 0.039252553 0.05327617 -0.20883323 -0.17143334 0.21029963 -0.08792425 0.07159633 0.21712238 -0.075512655 -0.20708673 0.115063526 -0.1539107 0.078218885 0.13489546 0.11722426 0.3061279 0.229262 0.06929599 -0.1599627 0.10648661 0.00863682 -0.07375005 0.03794785 -0.29406053 -0.037063077 -0.12467084 0.1818334 -0.11086068 -0.013282154 -0.019421395 -0.13787739 0.035709366 -0.24275234 -0.16614866 0.207086 0.14360665 0.24009475
28 -0.165604 -0.232593 0.20998248 -0.25214726 0.03294471 0.06415078 0.09975856 -0.1575103 -0.10404732 -0.042867776 -0.03651182 0.025664221 0.03872897 -0.14559375 0.041399438 -0.29916254 -0.053824678 -0.29523876 0.08728675 -0.08892596 0.25931114 0.11256595 0.08542775 0.28404406 -0.15162563 0.058087576 -0.15096198 -0.024370687 0.023475947 0.12302704 -0.08906088 0.08768346 -0.057755332 0.0005040847 -0.1007992 -0.35402578 0.14792633 0.013395256 0.08966013 -0.20626993 -0.22271203 -0.14676848 -0.077285975 0.25596225 0.012595698 0.3519889 -0.2291832 0.03314113 -0.07706043 0.04490687 -0.121813856 0.110053316 -0.11117558 0.14504966 -0.14876792 -0.13168213 -0.11351018 -0.04710299 -0.206184 0.12105891 0.10007464 -0.08412231 0.1096154 0.112045564 -0.04699914 -0.030802598 -0.023815557 0.0969018 -0.048609667 -0.09245648 -0.10671073 0.06415892 -0.08525209 -0.11454079 0.12134933 -0.12578782 0.029532736 -0.030530524 -0.12562269 -0.13933644 -0.13113822 -0.08203621 0.11212216 -0.17232059 -0.25001723 0.048573755 -0.008188384 -0.14151369 0.042401846 0.02551075 0.17214 0.009034078 0.12441783 -0.18988958 -0.1901943 0.22220378 -0.13591883 0.13887121 0.2516984 -0.040325295 -0.24164897 0.15303181 -0.16477403 0.092993885 0.15278536 0.18930212 0.31014064 0.2434952 0.041285522 -0.16050795 0.080522515 -0.012478771 -0.093205415 -0.036036674 -0.28343585 -0.0455956 -0.096979514 0.114482805 -0.10924372 0.033371806 -0.012408618 -0.21500273 0.025120487 -0.29754376 -0.14814803 0.14296493 0.11868571 0.17635639
21 -0.1387616 -0.21186772 0.23970155 -0.26524398 0.0068330313 0.094926685 0.13594164 -0.19624609 -0.09665351 -0.028682528 -0.057740033 0.018337758 0.024686614 -0.15812342 0.019651925 -0.2510379 -0.062132303 -0.3063231 0.08480525 -0.08011216 0.24791217 0.09912944 0.066650294 0.30129796 -0.14816275 0.09278452 -0.12770954 -0.022927968 0.03103694 0.1126959 -0.13232635 0.09200073 -0.06397233 -0.009751851 -0.12643725 -0.3831473 0.15672265 -0.0008570949 0.09097983 -0.23938924 -0.25965384 -0.17961809 -0.07595001 0.290852 0.06361986 0.3692492 -0.19459623 0.009090628 -0.083760455 0.053710733 -0.13733922 0.12035886 -0.12182209 0.14055228 -0.1466992 -0.10495065 -0.15751849 -0.08111735 -0.18049553 0.11504925 0.11973238 -0.08176342 0.07784659 0.1124277 -0.015472435 -0.06818448 0.005461131 0.10080155 -0.07320465 -0.12156975 -0.078949206 0.045432214 -0.07604563 -0.103028655 0.12668034 -0.15107451 0.038085833 -0.023426317 -0.15171112 -0.14283219 -0.12542768 -0.111731194 0.10681581 -0.1928978 -0.26943508 0.06557412 -0.03518173 -0.1411313 0.010851776 0.02312566 0.20364387 0.04084274 0.13093819 -0.17384692 -0.19238079 0.25531814 -0.13096674 0.12733603 0.24281009 -0.070120044 -0.24386604 0.13470839 -0.20249629 0.09796204 0.15030001 0.17205314 0.30295268 0.2580294 0.034409657 -0.16293348 0.11686662 -0.025861336 -0.07127985 -0.015943738 -0.25667685 -0.009811647 -0.08888778 0.16414298 -0.12575237 0.058764726 -0.02381832 -0.20605603 0.015817154 -0.2608807 -0.13342719 0.16608526 0.11994763 0.18494523
27 -0.15779807 -0.21998215 0.19936621 -0.23804075 -0.0019303253 0.042929664 0.10553396 -0.15365848 -0.0870569 0.0031591128 -0.035239495 0.04304993 0.04600147 -0.14393796 0.05344479 -0.27033427 -0.08894545 -0.2952339 0.062126264 -0.11760861 0.25553697 0.11323532 0.090827465 0.24195471 -0.1407033 0.06992199 -0.12736136 -0.012682335 0.031507768 0.1278921 -0.087775715 0.10847835 -0.087742776 -0.025071507 -0.08392272 -0.35827735 0.19053924 0.026064482 0.07298521 -0.20286451 -0.21881035 -0.15115668 -0.08691758 0.27439564 0.002354827 0.35529777 -0.20459116 0.046834413 -0.11189646 0.06402007 -0.13447398 0.1166001 -0.11012278 0.14084248 -0.1507736 -0.14808169 -0.13204363 -0.040114205 -0.16915639 0.08454663 0.11870744 -0.085339054 0.0861123 0.10730331 -0.031044303 -0.03309867 -0.018586157 0.101019315 0.002909305 -0.0794332 -0.11365848 0.0684936 -0.09432825 -0.13993172 0.15507296 -0.12477083 0.03849059 -0.039507736 -0.13345827 -0.14009501 -0.10462839 -0.07848719 0.10650282 -0.1916225 -0.29007447 0.06657042 0.014404737 -0.13900706 0.030157018 0.049235426 0.17754889 -0.0012852389 0.097901806 -0.19824359 -0.19474164 0.21003515 -0.08819685 0.11794091 0.23607145 -0.03842369 -0.23170038 0.13563877 -0.18100089 0.103814974 0.14778855 0.14129464 0.29692635 0.19877817 0.054392204 -0.17905213 0.08612773 0.006895382 -0.09336728 -0.0071186903 -0.30303663 -0.04770079 -0.14003234 0.1548544 -0.11589858 0.012706026 -0.01216708 -0.20335412 0.06261427 -0.27954885 -0.16607809 0.14915986 0.1225666 0.21012756
3 -0.15029879 -0.24604633 0.24739559 -0.2852305 0.005526114 0.043074515 0.16411681 -0.21371165 -0.15708582 -0.013942081 -0.024521664 0.0038758644 0.040677853 -0.21852392 0.019877871 -0.32133034 -0.07081849 -0.37032032 0.094711505 -0.13322087 0.2591626 0.14241329 0.028152429 0.30634663 -0.18450601 0.06164457 -0.14515822 -0.0058132056 0.06273177 0.17411268 -0.14193247 0.110345915 -0.095150866 -0.003918032 -0.09997001 -0.35095128 0.15316877 0.017258413 0.10394787 -0.22103985 -0.20217521 -0.15226269 -0.07816872 0.2634868 0.042695537 0.33220285 -0.21915211 0.040243696 -0.13079543 0.09182983 -0.12985037 0.11525109 -0.11978943 0.15775576 -0.17972305 -0.16904019 -0.16430436 -0.02378457 -0.10268695 0.07599504 0.12500699 -0.04964491 0.047982644 0.014510731 -0.043334533 -0.041367523 0.0056259395 0.10298092 -0.0014589085 -0.060445677 -0.10652165 0.054630827 -0.090937905 -0.09688347 0.086697586 -0.13621546 0.03272431 -0.04461868 -0.10473009 -0.15300249 -0.088527314 -0.08795087 0.10009475 -0.14226428 -0.23304097 0.05270035 -0.019134201 -0.1340375 0.03817424 0.025877742 0.15287113 0.031268556 0.04727804 -0.20898616 -0.17074308 0.21687809 -0.102044985 0.09216152 0.20031321 -0.06672111 -0.20398861 0.10950452 -0.115422495 0.053677354 0.13530271 0.114212565 0.25654346 0.1814936 0.056656092 -0.11716136 0.08350309 -0.012044223 -0.060241416 0.029004337 -0.2688404 -0.026907861 -0.10401148 0.11420422 -0.077839494 0.011634466 -0.014906085 -0.12727141 0.026627643 -0.18501139 -0.13328406 0.16998759 0.14563912 0.19581428
25 -0.13251808 -0.21703352 0.20786765 -0.28428316 0.030428208 0.039577443 0.14772338 -0.20377272 -0.12005685 -0.041241385 -0.051077552 -0.014875931 0.04743109 -0.20118842 0.04321143 -0.3324147 -0.07818887 -0.33733806 0.060142588 -0.11337334 0.28138465 0.1424934 0.045604363 0.31323603 -0.17179121 0.030043095 -0.13449517 -0.028566847 0.025324818 0.14782149 -0.12886347 0.09952148 -0.09291831 -0.034590244 -0.09880228 -0.34735537 0.17105688 0.02051414 0.07116651 -0.22969365 -0.19761582 -0.12585944 -0.072963655 0.24621373 0.035383537 0.35390097 -0.20951806 0.049662907 -0.113450006 0.08456536 -0.106879 0.13429095 -0.09270437 0.17214388 -0.1767918 -0.170962 -0.12396932 -0.054892775 -0.14075662 0.0742535 0.12403927 -0.06882772 0.06959702 0.03302074 -0.031379994 -0.042924635 -0.012798655 0.086571485 -0.012766645 -0.09932488 -0.09984102 0.031528734 -0.07035857 -0.1223373 0.119276345 -0.17355992 0.025974056 -0.054050628 -0.13385555 -0.1632582 -0.104224995 -0.09552586 0.09261225 -0.1760065 -0.23131584 0.050804086 -0.011252138 -0.126863 0.022911588 0.043412156 0.1664958 0.013868336 0.078300275 -0.2037921 -0.1905777 0.21819764 -0.11837295 0.0834833 0.2047743 -0.035391357 -0.19452089 0.12863092 -0.117937446 0.058652062 0.10795261 0.10901996 0.2800285 0.20332488 0.05464068 -0.14362383 0.07166875 -0.016643168 -0.08483878 0.0016245781 -0.28881982 -0.03708297 -0.093119375 0.13223323 -0.059275083 0.0047816276 -0.007413787 -0.1491513 0.02259866 -0.2732067 -0.13346827 0.19990605 0.12486193 0.20590597
0 -0.16331673 -0.2772096 0.24512683 -0.35012123 0.012227632 0.02226754 0.17637877 -0.23538007 -0.19583674 -0.030526455 -0.037451178 -0.014339179 0.072991066 -0.26085648 0.052997086 -0.43979806 -0.08676066 -0.42400602 0.09678729 -0.14913931 0.30938452 0.16524482 0.030326275 0.34756926 -0.23117544 0.02730048 -0.16039923 -0.02304235 0.05602735 0.18330155 -0.13663326 0.1320239 -0.10744823 -0.015561398 -0.089181505 -0.3847608 0.18803526 0.042978577 0.100809604 -0.2598228 -0.19841263 -0.13246132 -0.089516945 0.2586787 -0.0030012093 0.35886812 -0.26590484 0.063374594 -0.14089793 0.103593916 -0.1351225 0.14144488 -0.09174568 0.16780703 -0.1945875 -0.20252667 -0.1312355 -0.019154247 -0.14531548 0.06993182 0.124620296 -0.0778362 0.071871914 0.016829781 -0.03844262 -0.050930124 -0.04041074 0.09811906 -0.017900229 -0.08898681 -0.14295834 0.049550585 -0.0778262 -0.12256943 0.09828974 -0.16354448 0.015572725 -0.05979071 -0.104965575 -0.14542584 -0.09390283 -0.12257634 0.10961241 -0.14132637 -0.21099378 0.05584436 0.0075625246 -0.12307322 0.06034707 0.04197261 0.15158977 0.01470324 0.008566694 -0.24706456 -0.1664309 0.18756539 -0.13245136 0.061759733 0.18951507 -0.079140194 -0.18606421 0.12857476 -0.04307007 0.028903743 0.11914557 0.12237273 0.27507392 0.1883976 0.07826659 -0.11439849 0.06645817 0.018775495 -0.09792232 0.032905802 -0.3092355 -0.07115586 -0.11491218 0.068151325 -0.03483884 -0.025165057 -0.019954177 -0.08627563 0.008277461 -0.24837944 -0.13211228 0.20718434 0.17231463 0.21059749
17 -0.5304914 -0.47782335 0.19581203 -0.039259735 0.033672575 0.096091464 -0.28747863 0.027705517 0.2970898 0.14498404 0.21796568 0.52655035 -0.029307997 0.55907947 0.13880156 0.34731898 -0.31367236 0.15863477 -0.33424273 -0.40192944 0.4352933 0.14738218 0.3864435 -0.23575135 -0.1773686 0.16027857 0.034930784 0.16346358 -0.2375089 -0.18063588 0.22696203 0.25322703 0.3889372 0.03853925 0.3781483 0.32711256 -0.14962985 0.1586084 0.11487316 0.7014242 -0.27977622 0.06502415 0.10743322 0.026830953 0.059932176 0.38081944 0.08155247 0.21459918 -0.11192072 -0.08763406 -0.23863326 -0.16881898 0.03656566 -0.21535172 -0.11836466 -0.52407056 -0.51734114 0.09902352 -0.02724118 0.0040996363 0.39966694 0.07720073 0.3047993 -0.34573856 -0.26610574 0.7250279 0.21856879 -0.40396976 0.6244453 0.56750727 0.04749395 0.09349713 0.048815623 -0.17123714 0.21302941 0.4690964 0.30960926 0.028561067 -0.30831176 -0.44801295 -0.009182025 0.590055 0.1530702 0.045987923 -0.82202065 0.05840425 0.05355987 -0.47520587 0.12842506 0.042449325 -0.12633795 0.047376607 0.45524985 0.038435746 -0.32624623 0.09314795 0.46518975 0.376312 0.2555684 0.71277535 0.23233616 -0.20042962 -0.39901927 0.40376005 -0.101165116 -0.47975972 0.217971 -0.14663468 -0.16918832 -0.34225044 -0.49340883 -0.18185936 -0.09033094 -0.2214118 0.14933339 0.13649449 -0.036753234 0.41667208 -0.46472377 -0.060149346 0.32395795 -0.40616795 0.5625182 0.29887813 -0.36165163 -0.5429598 -0.4671191 0.05936436
12 -0.5082735 -0.5525817 0.22124289 -0.09187229 0.04396396 0.09640285 -0.27087215 -0.006249595 0.22628638 0.09045384 0.24908975 0.52652377 -0.075126015 0.47146225 0.100822285 0.24886502 -0.31958818 0.10829896 -0.28118634 -0.4393179 0.50118536 0.17134735 0.33957464 -0.11363852 -0.27211624 0.14136352 0.026678707 0.1646421 -0.25430274 -0.18555337 0.1780939 0.23746261 0.36895165 0.06739567 0.32724875 0.34250903 -0.1697907 0.15597768 0.13646398 0.66693264 -0.26206386 0.065723605 0.15686567 0.035672333 0.11900337 0.45593312 0.13510537 0.18337482 -0.09684579 -0.093841195 -0.22958209 -0.15163732 0.037423924 -0.2551921 -0.14228874 -0.4786706 -0.47863558 0.11112187 -0.004612848 0.03791639 0.3688994 0.09541401 0.25121126 -0.31620422 -0.31489602 0.68523866 0.21551846 -0.42374077 0.5885578 0.5348148 0.093190335 0.092303485 0.054122433 -0.08938531 0.18054293 0.47747988 0.32454363 0.040636435 -0.2966414 -0.41110992 -0.036079016 0.58962977 0.114620775 0.11354254 -0.81534404 0.069947265 0.030746523 -0.46841782 0.098086156 -0.040610846 -0.13235588 0.078086376 0.44658735 0.07975344 -0.25854048 0.08692286 0.4664298 0.2507568 0.17696689 0.6669964 0.24694438 -0.24335775 -0.3210817 0.34120443 -0.14648718 -0.52203846 0.14666569 -0.21045318 -0.15505719 -0.2616156 -0.4915558 -0.19307065 -0.03955544 -0.2118262 0.25008002 0.1586476 -0.0026186004 0.35166326 -0.45111394 -0.10161809 0.27098852 -0.34395024 0.5322322 0.39416778 -0.27329436 -0.5925498 -0.5262084 -0.03453437
14 -0.28922346 -0.07357876 0.30636895 -0.2951933 0.060965333 0.271402 0.027133225 -0.3264597 -0.06817771 0.2038296 -0.08106317 -0.03419285 0.008840947 0.15450703 0.20960505 0.21098493 -0.2104122 0.02398162 -0.44786116 -0.60596865 0.23085853 0.39003193 -0.16361664 -0.17559513 -0.290831 0.0627962 0.24292801 0.33634698 -0.16698399 -0.18374011 -0.060429055 0.33018994 0.15772106 0.00870601 0.41188237 0.25212398 -0.2103718 0.043558888 0.12616242 0.27116373 -0.20383427 0.20747668 0.091586046 -0.039921436 0.15174648 -0.049836647 -0.061137736 0.1682138 -0.1620269 0.17580307 -0.046227243 -0.011766553 0.089787714 0.23628241 -0.14866951 -0.46413523 -0.56581485 -0.09055292 0.30498758 -0.18694791 0.30622026 0.23665965 -0.03241046 -0.8930922 0.12456756 0.4743791 0.1994615 -0.3060464 0.47882748 0.24479353 0.041289497 -0.13139816 0.06377263 -0.08104713 -0.10698357 0.069117524 0.14194126 -0.08751323 -0.2907075 -0.3539417 0.23122136 0.22534342 0.044903178 0.12706053 -0.20931852 -0.06535364 -0.17823298 -0.2477827 0.11918725 0.32880577 -0.06759677 0.09362635 -0.13977031 -0.22391786 -0.18693645 0.08934979 0.25817254 0.27340677 -0.10930153 0.36971226 0.47826037 -0.26435927 0.011982864 0.13528454 -0.20319267 -0.5534446 0.060659282 -0.069964334 -0.22844972 -0.25234213 -0.19428712 -0.14549549 -0.2528942 0.09928589 0.17572248 0.20286931 -0.061207414 0.26195496 -0.14851603 0.22066616 0.3280805 0.09083178 0.38653603 0.5718469 -0.09152481 -0.06530767 0.09886377 0.24680033
15 -0.32354036 -0.09695419 0.30345348 -0.31188086 0.0759892 0.27144134 0.059953596 -0.3305848 -0.086750075 0.13778123 -0.018874943 -0.07571037 0.023989532 0.120266534 0.2272718 0.09462958 -0.20451915 -0.034191135 -0.3950292 -0.58271134 0.2431962 0.3716692 -0.15503567 -0.123855345 -0.30590707 0.00995742 0.1250305 0.28023517 -0.10939456 -0.17701812 -0.08100365 0.30750382 0.17776413 -0.01404783 0.36172852 0.23743969 -0.20033337 0.048342727 0.19409305 0.26533157 -0.1746757 0.21288429 0.056487046 -0.060976222 0.14367394 -0.0046552746 -0.15376316 0.1429974 -0.16555013 0.13183308 -0.009667587 0.0072252727 0.07977171 0.2595088 -0.2024856 -0.47867912 -0.5155307 -0.1419337 0.28655204 -0.09760776 0.29773104 0.28173026 -0.03476956 -0.8293705 0.13565305 0.4609098 0.15939309 -0.26188233 0.49635044 0.26600215 0.07056494 -0.16031992 0.07305296 -0.13848957 -0.1634828 0.027360186 0.12413143 -0.09175698 -0.28904566 -0.32888716 0.22831258 0.24560659 0.0150923515 0.06182201 -0.18805408 -0.13312756 -0.16889842 -0.25780442 0.11750136 0.33893806 -0.038025867 0.09786994 -0.11626247 -0.24943171 -0.18722443 0.062300548 0.25499922 0.26753914 -0.11166199 0.36225665 0.4936797 -0.23307936 0.012624145 0.111854024 -0.11644434 -0.5500145 0.061144087 -0.09698517 -0.16968858 -0.2711123 -0.14680792 -0.10564391 -0.25622827 0.04991191 0.08230101 0.22366418 -0.031665184 0.24884479 -0.14302933 0.2243129 0.33271128 0.063112944 0.4110137 0.57775766 -0.13219747 -0.045787685 0.1605314 0.24198142
11 -0.554022 -0.10018556 0.16767114 -0.22154245 0.4790115 0.17780605 -0.3855418 0.10688532 0.083118096 -0.08182969 -0.15644057 -0.1430987 -0.0057696328 0.18897519 0.5653931 -0.4444902 -0.05680227 0.14064334 -0.4006766 -0.56068397 0.44578585 0.3763989 0.12386988 0.021642046 -0.12853952 -0.1509627 -0.02037518 0.2779122 -0.28417408 -0.27827606 0.13867386 0.23402412 0.35996443 0.00023418499 0.55494463 0.37847638 -0.13313375 0.100853 0.20343326 0.5579739 -0.05911087 0.66802764 0.18490961 -0.23626462 -0.13579205 0.09118825 -0.2701251 0.34656668 0.008923278 0.1084253 0.27867547 -0.055695355 0.20936069 0.5761475 -0.22393157 -0.42652443 -0.1563847 -0.1581297 -0.36267957 0.1029457 0.12502502 -0.023123562 0.32469392 -0.5456489 0.0427968 0.5792977 -0.15783413 -0.3128569 0.6009375 0.06839889 -0.010335397 -0.16832031 -0.06836768 -0.24748296 0.14535792 0.19885781 0.22848871 -0.19010103 -0.23215851 -0.28222063 0.104078025 0.5808158 0.049012166 -0.06628848 -0.23722586 -0.206566 0.08353335 -0.19311403 0.23087093 0.4954433 -0.142511 -0.32119754 0.102948904 -0.2282234 -0.23192751 -0.04204958 0.03161981 0.50205415 -0.02427929 0.4796435 0.49498564 0.250977 0.045810368 0.2261092 -0.108153485 -0.19029824 0.12723842 -0.20878863 -0.11274086 -0.56085414 -0.22342104 0.0041995114 -0.74943906 -0.27252787 0.0041156937 -0.083180085 -0.2037491 -0.08928597 0.04263434 0.18576695 0.35329017 -0.39079645 0.45658126 -0.02904097 0.016233101 -0.4365612 0.017659005 0.05382607
18 -0.5130601 -0.066901565 0.129312 -0.2435672 0.41915664 0.16291441 -0.38217354 0.07335902 0.11005792 0.08099022 -0.14656228 -0.06948317 0.083242 0.19886237 0.5290493 -0.37861317 -0.06690144 0.14222957 -0.44605362 -0.458238 0.4286405 0.3605885 0.169308 -0.055045407 -0.039669257 -0.049670268 0.023080893 0.2842997 -0.20210396 -0.1947981 0.14189212 0.30241084 0.33200017 0.06529388 0.563279 0.2764576 -0.1684162 0.09463231 0.21989402 0.5607974 -0.11334409 0.64589536 0.058088325 -0.23309885 -0.1765281 0.060238335 -0.37238553 0.33765706 0.0050734477 0.09733195 0.21394901 -0.11545757 0.23689312 0.59504956 -0.21749796 -0.3753321 -0.20215711 -0.1856354 -0.30647528 0.02369097 0.17030151 -0.06552225 0.28429118 -0.6071787 0.1269714 0.5827828 -0.079697676 -0.32244858 0.63041407 0.19417071 -0.082466446 -0.15807937 -0.0035628052 -0.29962355 0.15315928 0.22092608 0.24120334 -0.1328017 -0.16094531 -0.29065508 0.07011099 0.54584175 0.114442356 -0.08248467 -0.2568491 -0.16649103 0.100248404 -0.20370919 0.21222521 0.52564335 -0.14449482 -0.3115798 0.08192795 -0.31783572 -0.3110312 -0.0058234027 0.011378736 0.58258355 0.056604225 0.41402516 0.44105488 0.23410957 0.040200096 0.25618684 -0.06469344 -0.19428922 0.09250185 -0.21676393 -0.14340483 -0.5785997 -0.2792553 -0.053652983 -0.7251265 -0.23516934 -0.02143416 -0.0909143 -0.20104696 -0.11827078 0.06990119 0.1735363 0.34957466 -0.3907006 0.41999736 0.016094625 -0.004161197 -0.42629662 0.024877507 0.0701006
19 -0.087359026 0.03442211 0.1952073 -0.19910291 0.43979073 0.6985933 -0.036010288 -0.20893475 0.23004046 -0.3556427 -0.32045412 -0.0331014 -0.21417949 0.38963655 0.08960184 0.23658884 -0.06854934 0.27048272 -0.37195364 -0.054288987 0.27594462 0.13582729 0.07415776 0.29675722 -0.055808887 0.13753383 0.013683299 -0.011235839 -0.3676619 -0.48418045 -0.13850817 -0.017727666 0.5386052 0.042685777 0.23622605 0.29365999 -0.4970578 -0.21684037 0.055452622 0.2367441 -0.42713824 0.25399482 0.26292112 -0.13911238 0.4828403 0.15155672 0.1129938 -0.12576026 0.32549712 -0.214893 0.13285096 -0.08697883 0.045370717 0.23506485 0.10938775 -0.006110502 -0.33709574 -0.49177435 -0.17260818 0.21486299 0.17815226 0.12260746 0.28048304 -0.37224522 0.15878695 0.40809673 0.22022073 -0.33062094 -0.072624385 -0.11531833 0.34624487 -0.24564372 0.22351791 -0.029844306 -0.1079956 -0.007942371 0.3429255 0.084479846 -0.5799062 -0.36717644 -0.16815147 0.32121497 0.06009135 -0.13538635 -0.107216105 -0.16674772 -0.32961166 -0.20342249 -0.13201681 0.24198559 0.13866137 0.1600111 0.67303586 0.13117751 -0.40828577 0.4940631 -0.09785461 0.58842653 0.12216574 0.49425712 0.31201994 0.040746152 -0.4120465 0.16671342 -0.22198562 -0.033584263 0.20356418 0.48073864 -0.4481631 -0.3996733 -0.09674304 -0.38061547 -0.37754765 -0.54360867 0.42213938 0.3370845 0.39794645 0.3629871 -0.30299217 0.6512106 0.27004683 -0.5617778 0.12165653 -0.12957655 0.01278209 -0.17724004 -0.23136689 -0.06308801
10 -0.14561448 -0.011921289 0.22976062 -0.28375134 0.5521367 0.8003927 -0.029152127 -0.24750885 0.2213217 -0.43753982 -0.32567078 -0.052399907 -0.25743797 0.38963535 0.13707802 0.13412102 -0.039432287 0.25275812 -0.42431775 -0.12825345 0.42080256 0.21355513 0.07547363 0.4581597 -0.13481583 0.09022881 -0.015862305 -0.0066307727 -0.4222071 -0.52309024 -0.19095106 -0.029958958 0.58524644 0.09899548 0.21176097 0.27172613 -0.50200224 -0.26261374 0.08233176 0.20617586 -0.49050325 0.31654802 0.32002953 -0.102089055 0.53800684 0.28137177 0.07559541 -0.100558944 0.38177225 -0.22063999 0.19162518 -0.062009946 0.08855541 0.33318186 0.022213768 -0.026703177 -0.32817587 -0.5636753 -0.274444 0.29424235 0.19844908 0.12096756 0.27864847 -0.42781463 0.15623863 0.4879633 0.17993185 -0.384387 -0.0654366 -0.173124 0.3796879 -0.30929247 0.24817844 -0.045094244 -0.06919838 0.0042084795 0.37748453 0.033812955 -0.64837784 -0.42529255 -0.23965935 0.36064395 0.07970157 -0.09618683 -0.16891913 -0.18833515 -0.3848361 -0.27830294 -0.09944445 0.25924647 0.17374124 0.14661919 0.7366799 0.109471664 -0.4557077 0.57810813 -0.15378076 0.61423934 0.1486407 0.5464479 0.33180258 0.07734523 -0.38106066 0.18400878 -0.24809803 -0.047469508 0.28079537 0.5265803 -0.4917063 -0.43126127 -0.0705883 -0.4463134 -0.46118885 -0.6048529 0.43900815 0.34811482 0.40314677 0.3511459 -0.30350485 0.655881 0.2962679 -0.6402255 0.15240847 -0.15181987 0.08326312 -0.22548954 -0.22611105 -0.055123366
9 0.12730479 -0.01767736 0.23653696 -0.27337593 -0.14463668 0.2498059 0.43539882 -0.43500626 -0.03460858 -0.01190609 -0.20416728 -0.012700797 -0.010232842 -0.10433012 -0.108543135 0.118348435 -0.27562198 -0.30395478 -0.11669658 -0.09508886 0.10963247 0.077649854 -0.059955858 0.20906429 -0.18015231 0.20380811 0.09626087 -0.088371456 0.019644016 -0.06270352 -0.37878835 0.12644434 -0.1064064 -0.17309794 -0.13973857 -0.35164306 0.18740144 -0.12091192 -0.10252841 -0.47721294 -0.38461268 -0.33132827 0.008850597 0.3531973 0.34109256 0.24798623 0.08079869 -0.12643753 -0.12542155 0.05161336 -0.23454188 0.21238236 -0.11004502 0.055721264 -0.006756155 -0.06318275 -0.3591769 -0.28561953 0.14183411 -0.08115715 0.29905427 0.029341063 -0.13513027 -0.10983214 0.20329097 -0.22283886 0.15357241 0.14379573 -0.26749694 -0.26688054 0.09803915 -0.09923948 0.109451115 -0.12408786 0.059867024 -0.3899554 0.06916379 0.031726293 -0.3964829 -0.16335408 -0.013580115 -0.40019637 0.03287837 -0.30179104 -0.14674263 0.14579275 -0.19751652 -0.057668686 -0.2024398 0.09386923 0.3418083 0.26541942 0.086029455 -0.08531059 -0.19083813 0.37300637 -0.010287731 -0.018343316 0.11171251 -0.0873435 -0.1437759 -0.056392323 -0.31856185 0.014159142 -0.0015132993 -0.03340157 0.29208222 0.49286154 -0.04451384 -0.13296068 0.2512654 -0.09087446 0.060511086 0.08948276 -0.15554518 0.1620426 0.046096254 0.55982155 -0.21276855 0.1645982 -0.02995343 -0.021444075 -0.06735706 -0.17641307 -0.15963677 0.52324224 0.15867475 0.3909046
20 0.15788925 -0.0026255632 0.24907787 -0.30705753 -0.14645964 0.2612383 0.4909416 -0.49184158 -0.054936297 -0.020611936 -0.247562 -0.0497006 0.0030465315 -0.09783587 -0.10297141 0.115080185 -0.32713485 -0.3357647 -0.16075224 -0.14558657 0.17220446 0.08206014 -0.10255364 0.2630521 -0.20600581 0.19015607 0.14265323 -0.07971302 0.015908694 -0.110772274 -0.43929198 0.12635893 -0.10653348 -0.19033971 -0.156405 -0.346726 0.20177579 -0.14511892 -0.10820607 -0.5594405 -0.38436165 -0.30643168 0.0020204068 0.33960596 0.39974368 0.26686013 0.098427795 -0.106266074 -0.12560964 0.07145391 -0.23331918 0.23533587 -0.07211259 0.06256308 -0.03976644 -0.07074402 -0.36209896 -0.32240188 0.16688356 -0.086123824 0.3383629 0.036714874 -0.1421189 -0.1725916 0.21383053 -0.23079632 0.14452568 0.15306729 -0.28136417 -0.28220844 0.08897696 -0.14492108 0.11840814 -0.13868143 0.034487218 -0.42007568 0.10088372 -0.010893783 -0.4121317 -0.1903039 -0.018594474 -0.4456557 0.048884626 -0.32025793 -0.12502785 0.16502917 -0.22742526 -0.04811982 -0.2142193 0.112087965 0.3645649 0.29279515 0.0479236 -0.1244453 -0.19933555 0.4191594 -0.023018274 -0.045256663 0.08552383 -0.08574441 -0.12458309 -0.048586033 -0.29093802 -0.011614097 -0.03423956 -0.062438954 0.30924213 0.5022564 -0.021458304 -0.10070092 0.24704437 -0.09717366 0.03493652 0.10999886 -0.18080705 0.16539995 0.083148606 0.59136087 -0.18400736 0.15535602 -0.022329122 0.044554118 -0.08153394 -0.20875582 -0.12908757 0.5839463 0.1636867 0.43007553
